<?xml version="1.0"?>
<opencv_storage>
<cascade>
  <stageType>BOOST</stageType>
  <featureType>HAAR</featureType>
  <height>20</height>
  <width>20</width>
  <stageParams>
    <boostType>GAB</boostType>
    <minHitRate>9.9500000476837158e-001</minHitRate>
    <maxFalseAlarm>5.0000000000000000e-001</maxFalseAlarm>
    <weightTrimRate>9.4999999999999996e-001</weightTrimRate>
    <maxDepth>1</maxDepth>
    <maxWeakCount>100</maxWeakCount></stageParams>
  <featureParams>
    <maxCatCount>0</maxCatCount>
    <featSize>1</featSize>
    <mode>BASIC</mode></featureParams>
  <stageNum>10</stageNum>
  <stages>
    <!-- stage 0 -->
    <_>
      <maxWeakCount>31</maxWeakCount>
      <stageThreshold>-1.0436977148056030e+000</stageThreshold>
      <weakClassifiers>
        <_>
          <internalNodes>
            0 -1 47 -1.0419574100524187e-003</internalNodes>
          <leafValues>
            6.3317072391510010e-001 1.4985074102878571e-001</leafValues></_>
        <_>
          <internalNodes>
            0 -1 341 2.7503643650561571e-003</internalNodes>
          <leafValues>
            -1.4193065464496613e-001 4.3719273805618286e-001</leafValues></_>
        <_>
          <internalNodes>
            0 -1 582 -6.7492597736418247e-004</internalNodes>
          <leafValues>
            3.1771352887153625e-001 -2.2408466041088104e-001</leafValues></_>
        <_>
          <internalNodes>
            0 -1 346 -1.5795907005667686e-002</internalNodes>
          <leafValues>
            3.8586753606796265e-001 -1.7823012173175812e-001</leafValues></_>
        <_>
          <internalNodes>
            0 -1 268 -2.1573556587100029e-003</internalNodes>
          <leafValues>
            3.9678227901458740e-001 -1.6072373092174530e-001</leafValues></_>
        <_>
          <internalNodes>
            0 -1 148 -5.0975230988115072e-004</internalNodes>
          <leafValues>
            3.1879869103431702e-001 -1.7526613175868988e-001</leafValues></_>
        <_>
          <internalNodes>
            0 -1 265 -1.1812507873401046e-003</internalNodes>
          <leafValues>
            4.2329412698745728e-001 -1.3339062035083771e-001</leafValues></_>
        <_>
          <internalNodes>
            0 -1 155 -1.3133857399225235e-002</internalNodes>
          <leafValues>
            3.9097648859024048e-001 -1.3238190114498138e-001</leafValues></_>
        <_>
          <internalNodes>
            0 -1 581 1.2078785803169012e-003</internalNodes>
          <leafValues>
            -1.5723051130771637e-001 3.4179493784904480e-001</leafValues></_>
        <_>
          <internalNodes>
            0 -1 329 -4.2003244161605835e-003</internalNodes>
          <leafValues>
            3.6976987123489380e-001 -1.4064064621925354e-001</leafValues></_>
        <_>
          <internalNodes>
            0 -1 380 -1.0227959137409925e-003</internalNodes>
          <leafValues>
            2.7406999468803406e-001 -1.6620555520057678e-001</leafValues></_>
        <_>
          <internalNodes>
            0 -1 105 2.0978548564016819e-003</internalNodes>
          <leafValues>
            -1.2209770828485489e-001 3.6306792497634888e-001</leafValues></_>
        <_>
          <internalNodes>
            0 -1 363 -4.2988377390429378e-004</internalNodes>
          <leafValues>
            2.6248702406883240e-001 -1.5926772356033325e-001</leafValues></_>
        <_>
          <internalNodes>
            0 -1 90 5.5150914704427123e-004</internalNodes>
          <leafValues>
            -1.6915537416934967e-001 2.4778030812740326e-001</leafValues></_>
        <_>
          <internalNodes>
            0 -1 438 -3.8818418397568166e-004</internalNodes>
          <leafValues>
            2.6605814695358276e-001 -1.6222114861011505e-001</leafValues></_>
        <_>
          <internalNodes>
            0 -1 183 -1.6983959358185530e-003</internalNodes>
          <leafValues>
            3.9429575204849243e-001 -8.5990712046623230e-002</leafValues></_>
        <_>
          <internalNodes>
            0 -1 627 1.4836800983175635e-003</internalNodes>
          <leafValues>
            -1.4177690446376801e-001 2.8919371962547302e-001</leafValues></_>
        <_>
          <internalNodes>
            0 -1 420 1.4009393751621246e-002</internalNodes>
          <leafValues>
            6.4954854547977448e-002 -7.5046873092651367e-001</leafValues></_>
        <_>
          <internalNodes>
            0 -1 138 -6.4159124158322811e-003</internalNodes>
          <leafValues>
            4.2167276144027710e-001 -1.0415579378604889e-001</leafValues></_>
        <_>
          <internalNodes>
            0 -1 387 -7.7410915400832891e-004</internalNodes>
          <leafValues>
            3.0217653512954712e-001 -1.6495403647422791e-001</leafValues></_>
        <_>
          <internalNodes>
            0 -1 98 -7.6061725849285722e-004</internalNodes>
          <leafValues>
            3.2256609201431274e-001 -1.2993167340755463e-001</leafValues></_>
        <_>
          <internalNodes>
            0 -1 424 -6.5318299457430840e-003</internalNodes>
          <leafValues>
            -8.2678729295730591e-001 5.2736654877662659e-002</leafValues></_>
        <_>
          <internalNodes>
            0 -1 610 2.2739502601325512e-003</internalNodes>
          <leafValues>
            -1.5125828981399536e-001 3.0041894316673279e-001</leafValues></_>
        <_>
          <internalNodes>
            0 -1 713 2.1875188685953617e-003</internalNodes>
          <leafValues>
            -1.1607203632593155e-001 3.1441828608512878e-001</leafValues></_>
        <_>
          <internalNodes>
            0 -1 665 -9.2334451619535685e-004</internalNodes>
          <leafValues>
            3.5977265238761902e-001 -9.8890319466590881e-002</leafValues></_>
        <_>
          <internalNodes>
            0 -1 368 -5.9880265034735203e-003</internalNodes>
          <leafValues>
            -8.3502507209777832e-001 4.9234110862016678e-002</leafValues></_>
        <_>
          <internalNodes>
            0 -1 648 6.4118712907657027e-004</internalNodes>
          <leafValues>
            -1.6530172526836395e-001 2.5059607625007629e-001</leafValues></_>
        <_>
          <internalNodes>
            0 -1 299 4.9985037185251713e-004</internalNodes>
          <leafValues>
            -1.2248104810714722e-001 2.7670350670814514e-001</leafValues></_>
        <_>
          <internalNodes>
            0 -1 168 1.0621494147926569e-003</internalNodes>
          <leafValues>
            -1.1561475694179535e-001 3.3980065584182739e-001</leafValues></_>
        <_>
          <internalNodes>
            0 -1 121 -5.2718985825777054e-003</internalNodes>
          <leafValues>
            3.9037603139877319e-001 -8.0284588038921356e-002</leafValues></_>
        <_>
          <internalNodes>
            0 -1 544 -7.0806936128064990e-004</internalNodes>
          <leafValues>
            2.3787650465965271e-001 -1.4474850893020630e-001</leafValues></_></weakClassifiers></_>
    <!-- stage 1 -->
    <_>
      <maxWeakCount>53</maxWeakCount>
      <stageThreshold>-5.8592593669891357e-001</stageThreshold>
      <weakClassifiers>
        <_>
          <internalNodes>
            0 -1 529 2.1143807098269463e-003</internalNodes>
          <leafValues>
            1.8381503224372864e-001 6.0000002384185791e-001</leafValues></_>
        <_>
          <internalNodes>
            0 -1 180 6.9139949046075344e-003</internalNodes>
          <leafValues>
            -1.0905791819095612e-001 3.6645317077636719e-001</leafValues></_>
        <_>
          <internalNodes>
            0 -1 464 -6.3923485577106476e-003</internalNodes>
          <leafValues>
            2.4925409257411957e-001 -1.7808882892131805e-001</leafValues></_>
        <_>
          <internalNodes>
            0 -1 487 5.6653108913451433e-004</internalNodes>
          <leafValues>
            -1.6797521710395813e-001 2.1644820272922516e-001</leafValues></_>
        <_>
          <internalNodes>
            0 -1 584 -2.0154276862740517e-003</internalNodes>
          <leafValues>
            1.7041449248790741e-001 -1.9519464671611786e-001</leafValues></_>
        <_>
          <internalNodes>
            0 -1 335 -8.3054704591631889e-003</internalNodes>
          <leafValues>
            4.2686045169830322e-001 -8.9927956461906433e-002</leafValues></_>
        <_>
          <internalNodes>
            0 -1 52 6.0177769046276808e-004</internalNodes>
          <leafValues>
            -1.6952072083950043e-001 2.1267870068550110e-001</leafValues></_>
        <_>
          <internalNodes>
            0 -1 356 -1.0193164926022291e-003</internalNodes>
          <leafValues>
            2.2368977963924408e-001 -1.5646095573902130e-001</leafValues></_>
        <_>
          <internalNodes>
            0 -1 431 -5.6730126962065697e-003</internalNodes>
          <leafValues>
            -7.0186477899551392e-001 4.7991745173931122e-002</leafValues></_>
        <_>
          <internalNodes>
            0 -1 267 1.8483013845980167e-003</internalNodes>
          <leafValues>
            -1.1161223798990250e-001 2.6720717549324036e-001</leafValues></_>
        <_>
          <internalNodes>
            0 -1 562 2.3513881489634514e-002</internalNodes>
          <leafValues>
            -7.9136200249195099e-002 3.3143869042396545e-001</leafValues></_>
        <_>
          <internalNodes>
            0 -1 296 -5.0681008724495769e-004</internalNodes>
          <leafValues>
            2.0584528148174286e-001 -1.2180569767951965e-001</leafValues></_>
        <_>
          <internalNodes>
            0 -1 164 7.7278455719351768e-003</internalNodes>
          <leafValues>
            -9.3585588037967682e-002 2.6674395799636841e-001</leafValues></_>
        <_>
          <internalNodes>
            0 -1 199 -1.8933718092739582e-003</internalNodes>
          <leafValues>
            1.9050192832946777e-001 -1.3487108051776886e-001</leafValues></_>
        <_>
          <internalNodes>
            0 -1 265 -4.9835740355774760e-004</internalNodes>
          <leafValues>
            1.9299729168415070e-001 -1.2888863682746887e-001</leafValues></_>
        <_>
          <internalNodes>
            0 -1 539 -5.3634941577911377e-003</internalNodes>
          <leafValues>
            -5.4126304388046265e-001 4.4207017868757248e-002</leafValues></_>
        <_>
          <internalNodes>
            0 -1 542 -1.3525076210498810e-003</internalNodes>
          <leafValues>
            2.7225863933563232e-001 -9.0956807136535645e-002</leafValues></_>
        <_>
          <internalNodes>
            0 -1 455 5.4687825031578541e-003</internalNodes>
          <leafValues>
            5.1467120647430420e-002 -5.4550909996032715e-001</leafValues></_>
        <_>
          <internalNodes>
            0 -1 586 1.8024116754531860e-002</internalNodes>
          <leafValues>
            -7.0331715047359467e-002 3.7865683436393738e-001</leafValues></_>
        <_>
          <internalNodes>
            0 -1 624 -1.1930710170418024e-003</internalNodes>
          <leafValues>
            2.7302685379981995e-001 -9.0021066367626190e-002</leafValues></_>
        <_>
          <internalNodes>
            0 -1 486 -7.4835140258073807e-003</internalNodes>
          <leafValues>
            -6.2354254722595215e-001 4.4313203543424606e-002</leafValues></_>
        <_>
          <internalNodes>
            0 -1 54 -4.7011822462081909e-003</internalNodes>
          <leafValues>
            2.5917860865592957e-001 -9.5300197601318359e-002</leafValues></_>
        <_>
          <internalNodes>
            0 -1 282 3.7887070793658495e-003</internalNodes>
          <leafValues>
            -9.1012075543403625e-002 2.6688641309738159e-001</leafValues></_>
        <_>
          <internalNodes>
            0 -1 244 1.1135456152260303e-002</internalNodes>
          <leafValues>
            8.2942560315132141e-002 -3.2980149984359741e-001</leafValues></_>
        <_>
          <internalNodes>
            0 -1 208 4.0884492918848991e-003</internalNodes>
          <leafValues>
            -8.4728591144084930e-002 2.9621013998985291e-001</leafValues></_>
        <_>
          <internalNodes>
            0 -1 206 8.1935217604041100e-003</internalNodes>
          <leafValues>
            5.2486393600702286e-002 -5.5978965759277344e-001</leafValues></_>
        <_>
          <internalNodes>
            0 -1 253 4.8825438134372234e-003</internalNodes>
          <leafValues>
            -1.2140067666769028e-001 2.1438221633434296e-001</leafValues></_>
        <_>
          <internalNodes>
            0 -1 357 -1.1952366679906845e-002</internalNodes>
          <leafValues>
            -5.6048208475112915e-001 4.6134751290082932e-002</leafValues></_>
        <_>
          <internalNodes>
            0 -1 714 2.8788796626031399e-003</internalNodes>
          <leafValues>
            -1.0677225887775421e-001 2.3508220911026001e-001</leafValues></_>
        <_>
          <internalNodes>
            0 -1 473 -5.1301473286002874e-004</internalNodes>
          <leafValues>
            2.0492224395275116e-001 -1.1314093321561813e-001</leafValues></_>
        <_>
          <internalNodes>
            0 -1 26 -7.3398306267336011e-004</internalNodes>
          <leafValues>
            1.7966255545616150e-001 -1.3958060741424561e-001</leafValues></_>
        <_>
          <internalNodes>
            0 -1 612 -8.3739772439002991e-002</internalNodes>
          <leafValues>
            6.1282730102539063e-001 -3.7578925490379333e-002</leafValues></_>
        <_>
          <internalNodes>
            0 -1 57 3.1389895593747497e-004</internalNodes>
          <leafValues>
            -1.2823668122291565e-001 1.8168182671070099e-001</leafValues></_>
        <_>
          <internalNodes>
            0 -1 207 -5.3833983838558197e-003</internalNodes>
          <leafValues>
            -3.1432178616523743e-001 8.0807305872440338e-002</leafValues></_>
        <_>
          <internalNodes>
            0 -1 254 -6.8971472792327404e-003</internalNodes>
          <leafValues>
            -7.0829725265502930e-001 3.0038068071007729e-002</leafValues></_>
        <_>
          <internalNodes>
            0 -1 145 -1.0088625364005566e-002</internalNodes>
          <leafValues>
            1.8829648196697235e-001 -1.2907257676124573e-001</leafValues></_>
        <_>
          <internalNodes>
            0 -1 94 -3.5286187194287777e-003</internalNodes>
          <leafValues>
            -4.1476324200630188e-001 5.7900782674551010e-002</leafValues></_>
        <_>
          <internalNodes>
            0 -1 702 -7.7318615512922406e-004</internalNodes>
          <leafValues>
            2.3274989426136017e-001 -1.0069729387760162e-001</leafValues></_>
        <_>
          <internalNodes>
            0 -1 371 -2.1567229181528091e-002</internalNodes>
          <leafValues>
            -5.9499210119247437e-001 4.5141234993934631e-002</leafValues></_>
        <_>
          <internalNodes>
            0 -1 411 -3.0307613313198090e-002</internalNodes>
          <leafValues>
            -6.1807429790496826e-001 3.5378586500883102e-002</leafValues></_>
        <_>
          <internalNodes>
            0 -1 349 6.2128214631229639e-004</internalNodes>
          <leafValues>
            -1.2847079336643219e-001 1.9548940658569336e-001</leafValues></_>
        <_>
          <internalNodes>
            0 -1 521 -8.9795642998069525e-004</internalNodes>
          <leafValues>
            2.0922406017780304e-001 -1.0920813679695129e-001</leafValues></_>
        <_>
          <internalNodes>
            0 -1 589 -4.7483484377153218e-004</internalNodes>
          <leafValues>
            1.7482058703899384e-001 -1.3264861702919006e-001</leafValues></_>
        <_>
          <internalNodes>
            0 -1 600 9.3469681451097131e-004</internalNodes>
          <leafValues>
            -1.4683133363723755e-001 1.8846091628074646e-001</leafValues></_>
        <_>
          <internalNodes>
            0 -1 607 -8.2591958343982697e-003</internalNodes>
          <leafValues>
            2.7754983305931091e-001 -1.0527258366346359e-001</leafValues></_>
        <_>
          <internalNodes>
            0 -1 590 -5.0606695003807545e-003</internalNodes>
          <leafValues>
            -5.0583666563034058e-001 5.4095592349767685e-002</leafValues></_>
        <_>
          <internalNodes>
            0 -1 285 -2.6522763073444366e-003</internalNodes>
          <leafValues>
            -3.6278796195983887e-001 6.7881330847740173e-002</leafValues></_>
        <_>
          <internalNodes>
            0 -1 477 1.1895780917257071e-003</internalNodes>
          <leafValues>
            -1.1775704473257065e-001 2.1327194571495056e-001</leafValues></_>
        <_>
          <internalNodes>
            0 -1 693 -2.7031847275793552e-003</internalNodes>
          <leafValues>
            -3.8722887635231018e-001 6.3917398452758789e-002</leafValues></_>
        <_>
          <internalNodes>
            0 -1 652 -9.1341254301369190e-004</internalNodes>
          <leafValues>
            2.2221960127353668e-001 -1.1117952316999435e-001</leafValues></_>
        <_>
          <internalNodes>
            0 -1 537 -2.3859771899878979e-003</internalNodes>
          <leafValues>
            -3.4801530838012695e-001 6.8710021674633026e-002</leafValues></_>
        <_>
          <internalNodes>
            0 -1 5 -5.7953812181949615e-002</internalNodes>
          <leafValues>
            2.9418531060218811e-001 -7.9621031880378723e-002</leafValues></_>
        <_>
          <internalNodes>
            0 -1 17 -3.4516289830207825e-002</internalNodes>
          <leafValues>
            4.5738404989242554e-001 -5.0427410751581192e-002</leafValues></_></weakClassifiers></_>
    <!-- stage 2 -->
    <_>
      <maxWeakCount>68</maxWeakCount>
      <stageThreshold>-6.6107755899429321e-001</stageThreshold>
      <weakClassifiers>
        <_>
          <internalNodes>
            0 -1 561 -2.8474777936935425e-003</internalNodes>
          <leafValues>
            5.1999998092651367e-001 2.0984615385532379e-001</leafValues></_>
        <_>
          <internalNodes>
            0 -1 376 3.0010766349732876e-003</internalNodes>
          <leafValues>
            -8.8144868612289429e-002 2.6527750492095947e-001</leafValues></_>
        <_>
          <internalNodes>
            0 -1 533 -4.6690194867551327e-003</internalNodes>
          <leafValues>
            1.6470697522163391e-001 -1.6888797283172607e-001</leafValues></_>
        <_>
          <internalNodes>
            0 -1 267 2.5861472822725773e-003</internalNodes>
          <leafValues>
            -1.1267708241939545e-001 2.5974562764167786e-001</leafValues></_>
        <_>
          <internalNodes>
            0 -1 479 1.5528632793575525e-003</internalNodes>
          <leafValues>
            -1.2863990664482117e-001 1.8675415217876434e-001</leafValues></_>
        <_>
          <internalNodes>
            0 -1 435 6.6700414754450321e-003</internalNodes>
          <leafValues>
            4.1004687547683716e-002 -4.9789851903915405e-001</leafValues></_>
        <_>
          <internalNodes>
            0 -1 275 1.5918303281068802e-002</internalNodes>
          <leafValues>
            -7.8449800610542297e-002 3.0359870195388794e-001</leafValues></_>
        <_>
          <internalNodes>
            0 -1 482 2.1150696557015181e-003</internalNodes>
          <leafValues>
            -1.2326953560113907e-001 1.9609190523624420e-001</leafValues></_>
        <_>
          <internalNodes>
            0 -1 372 3.2145646400749683e-003</internalNodes>
          <leafValues>
            -1.1289133876562119e-001 2.5244781374931335e-001</leafValues></_>
        <_>
          <internalNodes>
            0 -1 419 7.7963387593626976e-003</internalNodes>
          <leafValues>
            6.0501459985971451e-002 -4.9363875389099121e-001</leafValues></_>
        <_>
          <internalNodes>
            0 -1 544 -8.3453080151230097e-004</internalNodes>
          <leafValues>
            1.7602933943271637e-001 -1.2764947116374969e-001</leafValues></_>
        <_>
          <internalNodes>
            0 -1 484 3.7404620088636875e-003</internalNodes>
          <leafValues>
            5.8717556297779083e-002 -4.3694350123405457e-001</leafValues></_>
        <_>
          <internalNodes>
            0 -1 497 8.7918282952159643e-004</internalNodes>
          <leafValues>
            -1.2497828155755997e-001 2.0249614119529724e-001</leafValues></_>
        <_>
          <internalNodes>
            0 -1 342 5.6420424953103065e-003</internalNodes>
          <leafValues>
            -8.5190929472446442e-002 2.6290416717529297e-001</leafValues></_>
        <_>
          <internalNodes>
            0 -1 708 -9.6389930695295334e-004</internalNodes>
          <leafValues>
            1.8341423571109772e-001 -1.2709681689739227e-001</leafValues></_>
        <_>
          <internalNodes>
            0 -1 472 -2.0489178597927094e-002</internalNodes>
          <leafValues>
            -4.2799559235572815e-001 5.0336241722106934e-002</leafValues></_>
        <_>
          <internalNodes>
            0 -1 408 -3.1519024632871151e-003</internalNodes>
          <leafValues>
            2.1580755710601807e-001 -1.0390496253967285e-001</leafValues></_>
        <_>
          <internalNodes>
            0 -1 53 -1.1070009786635637e-003</internalNodes>
          <leafValues>
            1.8197561800479889e-001 -1.1641764640808105e-001</leafValues></_>
        <_>
          <internalNodes>
            0 -1 59 1.7364219529554248e-003</internalNodes>
          <leafValues>
            -1.1842341721057892e-001 2.2981445491313934e-001</leafValues></_>
        <_>
          <internalNodes>
            0 -1 698 -2.5853034108877182e-002</internalNodes>
          <leafValues>
            3.0805733799934387e-001 -6.2782853841781616e-002</leafValues></_>
        <_>
          <internalNodes>
            0 -1 8 6.5363138914108276e-002</internalNodes>
          <leafValues>
            -6.7947231233119965e-002 2.9467424750328064e-001</leafValues></_>
        <_>
          <internalNodes>
            0 -1 177 4.0700184181332588e-003</internalNodes>
          <leafValues>
            5.2837204188108444e-002 -4.3187624216079712e-001</leafValues></_>
        <_>
          <internalNodes>
            0 -1 642 -5.4075283696874976e-004</internalNodes>
          <leafValues>
            2.0286168158054352e-001 -1.0487397760152817e-001</leafValues></_>
        <_>
          <internalNodes>
            0 -1 320 -1.2557855807244778e-002</internalNodes>
          <leafValues>
            -6.0522150993347168e-001 3.2906819134950638e-002</leafValues></_>
        <_>
          <internalNodes>
            0 -1 541 -2.6530195027589798e-003</internalNodes>
          <leafValues>
            2.3378875851631165e-001 -9.0811856091022491e-002</leafValues></_>
        <_>
          <internalNodes>
            0 -1 634 -6.7535256966948509e-003</internalNodes>
          <leafValues>
            -4.1139310598373413e-001 5.5003147572278976e-002</leafValues></_>
        <_>
          <internalNodes>
            0 -1 345 -6.0486262664198875e-003</internalNodes>
          <leafValues>
            3.3235609531402588e-001 -6.4985379576683044e-002</leafValues></_>
        <_>
          <internalNodes>
            0 -1 14 2.8376925736665726e-002</internalNodes>
          <leafValues>
            9.7445748746395111e-002 -2.1055115759372711e-001</leafValues></_>
        <_>
          <internalNodes>
            0 -1 97 2.5823768228292465e-003</internalNodes>
          <leafValues>
            -1.3214300572872162e-001 1.6225545108318329e-001</leafValues></_>
        <_>
          <internalNodes>
            0 -1 367 -3.0501032248139381e-002</internalNodes>
          <leafValues>
            -6.9498449563980103e-001 3.2742187380790710e-002</leafValues></_>
        <_>
          <internalNodes>
            0 -1 619 -4.5754713937640190e-003</internalNodes>
          <leafValues>
            -3.4861949086189270e-001 5.7938467711210251e-002</leafValues></_>
        <_>
          <internalNodes>
            0 -1 674 1.2241781223565340e-003</internalNodes>
          <leafValues>
            -8.9520901441574097e-002 2.4691367149353027e-001</leafValues></_>
        <_>
          <internalNodes>
            0 -1 450 -3.1442180275917053e-002</internalNodes>
          <leafValues>
            -5.9829223155975342e-001 3.6170445382595062e-002</leafValues></_>
        <_>
          <internalNodes>
            0 -1 216 1.3468710705637932e-002</internalNodes>
          <leafValues>
            4.4783968478441238e-002 -4.5303949713706970e-001</leafValues></_>
        <_>
          <internalNodes>
            0 -1 645 2.5830881204456091e-003</internalNodes>
          <leafValues>
            -7.8314743936061859e-002 2.6231342554092407e-001</leafValues></_>
        <_>
          <internalNodes>
            0 -1 78 -1.3822168111801147e-002</internalNodes>
          <leafValues>
            4.9091491103172302e-001 -4.0129661560058594e-002</leafValues></_>
        <_>
          <internalNodes>
            0 -1 167 2.0189965143799782e-003</internalNodes>
          <leafValues>
            -1.0221264511346817e-001 2.2123578190803528e-001</leafValues></_>
        <_>
          <internalNodes>
            0 -1 452 2.6297023519873619e-002</internalNodes>
          <leafValues>
            5.9048615396022797e-002 -3.5208505392074585e-001</leafValues></_>
        <_>
          <internalNodes>
            0 -1 286 -1.1298502795398235e-003</internalNodes>
          <leafValues>
            1.9447819888591766e-001 -1.0445918142795563e-001</leafValues></_>
        <_>
          <internalNodes>
            0 -1 284 6.7807862069457769e-004</internalNodes>
          <leafValues>
            -9.8913162946701050e-002 2.2920906543731689e-001</leafValues></_>
        <_>
          <internalNodes>
            0 -1 171 -4.4978698715567589e-003</internalNodes>
          <leafValues>
            -4.5476797223091125e-001 4.4997546821832657e-002</leafValues></_>
        <_>
          <internalNodes>
            0 -1 198 -9.0614007785916328e-004</internalNodes>
          <leafValues>
            1.4899222552776337e-001 -1.2866045534610748e-001</leafValues></_>
        <_>
          <internalNodes>
            0 -1 300 1.0389450937509537e-002</internalNodes>
          <leafValues>
            3.9633460342884064e-002 -4.9877062439918518e-001</leafValues></_>
        <_>
          <internalNodes>
            0 -1 347 -1.0276583954691887e-002</internalNodes>
          <leafValues>
            -2.0881731808185577e-001 1.0714539140462875e-001</leafValues></_>
        <_>
          <internalNodes>
            0 -1 416 -7.8658953309059143e-002</internalNodes>
          <leafValues>
            -6.3433474302291870e-001 3.1130885705351830e-002</leafValues></_>
        <_>
          <internalNodes>
            0 -1 611 -4.8642400652170181e-003</internalNodes>
          <leafValues>
            -3.2277822494506836e-001 5.4665938019752502e-002</leafValues></_>
        <_>
          <internalNodes>
            0 -1 707 -1.7266445793211460e-003</internalNodes>
          <leafValues>
            2.3592117428779602e-001 -8.9575938880443573e-002</leafValues></_>
        <_>
          <internalNodes>
            0 -1 197 1.6677475068718195e-003</internalNodes>
          <leafValues>
            -9.7357101738452911e-002 1.9103929400444031e-001</leafValues></_>
        <_>
          <internalNodes>
            0 -1 369 -1.1101206764578819e-002</internalNodes>
          <leafValues>
            -7.0151519775390625e-001 2.6428209617733955e-002</leafValues></_>
        <_>
          <internalNodes>
            0 -1 594 1.4980508713051677e-003</internalNodes>
          <leafValues>
            -1.2011419236660004e-001 1.5727272629737854e-001</leafValues></_>
        <_>
          <internalNodes>
            0 -1 360 -6.2856462318450212e-004</internalNodes>
          <leafValues>
            1.6818769276142120e-001 -1.1309252679347992e-001</leafValues></_>
        <_>
          <internalNodes>
            0 -1 543 5.5827051401138306e-003</internalNodes>
          <leafValues>
            3.4836892038583755e-002 -5.6892573833465576e-001</leafValues></_>
        <_>
          <internalNodes>
            0 -1 605 -2.4045046418905258e-002</internalNodes>
          <leafValues>
            5.6637555360794067e-001 -3.7870667874813080e-002</leafValues></_>
        <_>
          <internalNodes>
            0 -1 257 -2.1670088171958923e-002</internalNodes>
          <leafValues>
            -4.2602783441543579e-001 4.6596623957157135e-002</leafValues></_>
        <_>
          <internalNodes>
            0 -1 361 -5.3686212049797177e-004</internalNodes>
          <leafValues>
            1.9021534919738770e-001 -1.1070293188095093e-001</leafValues></_>
        <_>
          <internalNodes>
            0 -1 82 -2.5877920910716057e-002</internalNodes>
          <leafValues>
            -6.4231669902801514e-001 2.9981289058923721e-002</leafValues></_>
        <_>
          <internalNodes>
            0 -1 462 9.2910239472985268e-003</internalNodes>
          <leafValues>
            -5.4227408021688461e-002 3.6336299777030945e-001</leafValues></_>
        <_>
          <internalNodes>
            0 -1 661 -8.2385875284671783e-003</internalNodes>
          <leafValues>
            -1.5396498143672943e-001 1.3024200499057770e-001</leafValues></_>
        <_>
          <internalNodes>
            0 -1 599 7.2128148749470711e-003</internalNodes>
          <leafValues>
            2.7775608003139496e-002 -6.7551577091217041e-001</leafValues></_>
        <_>
          <internalNodes>
            0 -1 631 4.9018871504813433e-004</internalNodes>
          <leafValues>
            -1.1848571896553040e-001 1.8473899364471436e-001</leafValues></_>
        <_>
          <internalNodes>
            0 -1 81 -1.8546771258115768e-002</internalNodes>
          <leafValues>
            -6.7285221815109253e-001 3.2307785004377365e-002</leafValues></_>
        <_>
          <internalNodes>
            0 -1 547 1.5975176356732845e-003</internalNodes>
          <leafValues>
            -9.2235468327999115e-002 2.1698077023029327e-001</leafValues></_>
        <_>
          <internalNodes>
            0 -1 30 5.0657823681831360e-002</internalNodes>
          <leafValues>
            6.1319343745708466e-002 -3.3435466885566711e-001</leafValues></_>
        <_>
          <internalNodes>
            0 -1 434 9.3116972129791975e-004</internalNodes>
          <leafValues>
            -1.3010355830192566e-001 1.5063607692718506e-001</leafValues></_>
        <_>
          <internalNodes>
            0 -1 377 -1.3409545645117760e-003</internalNodes>
          <leafValues>
            2.2640697658061981e-001 -8.9942939579486847e-002</leafValues></_>
        <_>
          <internalNodes>
            0 -1 426 -9.0133640915155411e-003</internalNodes>
          <leafValues>
            -4.9971905350685120e-001 4.3433271348476410e-002</leafValues></_>
        <_>
          <internalNodes>
            0 -1 355 3.2058262731879950e-003</internalNodes>
          <leafValues>
            3.9636708796024323e-002 -4.6526232361793518e-001</leafValues></_>
        <_>
          <internalNodes>
            0 -1 154 -7.9459875822067261e-002</internalNodes>
          <leafValues>
            2.7256116271018982e-001 -7.0524014532566071e-002</leafValues></_></weakClassifiers></_>
    <!-- stage 3 -->
    <_>
      <maxWeakCount>76</maxWeakCount>
      <stageThreshold>-6.6361844539642334e-001</stageThreshold>
      <weakClassifiers>
        <_>
          <internalNodes>
            0 -1 543 -3.4884300548583269e-003</internalNodes>
          <leafValues>
            -1.6723549365997314e-001 3.9426672458648682e-001</leafValues></_>
        <_>
          <internalNodes>
            0 -1 113 -1.6715537058189511e-003</internalNodes>
          <leafValues>
            2.5320443511009216e-001 -8.7462879717350006e-002</leafValues></_>
        <_>
          <internalNodes>
            0 -1 179 -5.3291209042072296e-003</internalNodes>
          <leafValues>
            2.7361777424812317e-001 -8.9093007147312164e-002</leafValues></_>
        <_>
          <internalNodes>
            0 -1 451 2.8657633811235428e-002</internalNodes>
          <leafValues>
            -8.1433549523353577e-002 4.0182417631149292e-001</leafValues></_>
        <_>
          <internalNodes>
            0 -1 530 -6.4089018851518631e-003</internalNodes>
          <leafValues>
            1.9347339868545532e-001 -1.1833982169628143e-001</leafValues></_>
        <_>
          <internalNodes>
            0 -1 421 -1.9174009561538696e-002</internalNodes>
          <leafValues>
            -4.2612653970718384e-001 5.1061328500509262e-002</leafValues></_>
        <_>
          <internalNodes>
            0 -1 483 -8.9191477745771408e-003</internalNodes>
          <leafValues>
            -5.2641719579696655e-001 3.8497928529977798e-002</leafValues></_>
        <_>
          <internalNodes>
            0 -1 442 -3.6233388818800449e-003</internalNodes>
          <leafValues>
            -6.1501801013946533e-001 3.6343447864055634e-002</leafValues></_>
        <_>
          <internalNodes>
            0 -1 88 -6.3481651246547699e-002</internalNodes>
          <leafValues>
            3.8241231441497803e-001 -5.4260376840829849e-002</leafValues></_>
        <_>
          <internalNodes>
            0 -1 587 2.9441002756357193e-002</internalNodes>
          <leafValues>
            -5.5237282067537308e-002 3.5591694712638855e-001</leafValues></_>
        <_>
          <internalNodes>
            0 -1 574 -1.8206100910902023e-002</internalNodes>
          <leafValues>
            2.3644337058067322e-001 -9.6390165388584137e-002</leafValues></_>
        <_>
          <internalNodes>
            0 -1 635 -4.6565057709813118e-003</internalNodes>
          <leafValues>
            -2.9341197013854980e-001 8.2272000610828400e-002</leafValues></_>
        <_>
          <internalNodes>
            0 -1 237 1.5434743836522102e-003</internalNodes>
          <leafValues>
            -1.0066931694746017e-001 2.0504756271839142e-001</leafValues></_>
        <_>
          <internalNodes>
            0 -1 404 2.6675853878259659e-002</internalNodes>
          <leafValues>
            4.9788750708103180e-002 -4.5970392227172852e-001</leafValues></_>
        <_>
          <internalNodes>
            0 -1 229 6.5503721125423908e-003</internalNodes>
          <leafValues>
            -6.3687540590763092e-002 3.1673151254653931e-001</leafValues></_>
        <_>
          <internalNodes>
            0 -1 205 4.8300595954060555e-003</internalNodes>
          <leafValues>
            4.5061945915222168e-002 -4.8097246885299683e-001</leafValues></_>
        <_>
          <internalNodes>
            0 -1 465 -3.0211523175239563e-002</internalNodes>
          <leafValues>
            -3.9940661191940308e-001 4.6548627316951752e-002</leafValues></_>
        <_>
          <internalNodes>
            0 -1 174 -1.8745452398434281e-003</internalNodes>
          <leafValues>
            1.8024051189422607e-001 -1.1184397339820862e-001</leafValues></_>
        <_>
          <internalNodes>
            0 -1 278 -8.9080128818750381e-003</internalNodes>
          <leafValues>
            -2.1864281594753265e-001 9.8645336925983429e-002</leafValues></_>
        <_>
          <internalNodes>
            0 -1 107 3.1119651976041496e-004</internalNodes>
          <leafValues>
            -1.4044852554798126e-001 1.5104854106903076e-001</leafValues></_>
        <_>
          <internalNodes>
            0 -1 27 -2.7126111090183258e-003</internalNodes>
          <leafValues>
            1.8944390118122101e-001 -1.1083978414535522e-001</leafValues></_>
        <_>
          <internalNodes>
            0 -1 63 3.6857873201370239e-003</internalNodes>
          <leafValues>
            -9.8273821175098419e-002 2.2608935832977295e-001</leafValues></_>
        <_>
          <internalNodes>
            0 -1 622 -6.2130093574523926e-003</internalNodes>
          <leafValues>
            -7.3169291019439697e-001 2.7556939050555229e-002</leafValues></_>
        <_>
          <internalNodes>
            0 -1 427 -7.7280392870306969e-003</internalNodes>
          <leafValues>
            -5.7856416702270508e-001 3.0435627326369286e-002</leafValues></_>
        <_>
          <internalNodes>
            0 -1 488 1.1700879782438278e-002</internalNodes>
          <leafValues>
            3.4050781279802322e-002 -5.0681912899017334e-001</leafValues></_>
        <_>
          <internalNodes>
            0 -1 498 -5.7047640439122915e-004</internalNodes>
          <leafValues>
            1.7675022780895233e-001 -1.1404697597026825e-001</leafValues></_>
        <_>
          <internalNodes>
            0 -1 544 -1.3495394960045815e-003</internalNodes>
          <leafValues>
            2.0347686111927032e-001 -1.1111073940992355e-001</leafValues></_>
        <_>
          <internalNodes>
            0 -1 492 2.6977662928402424e-003</internalNodes>
          <leafValues>
            -6.8667076528072357e-002 4.1898524761199951e-001</leafValues></_>
        <_>
          <internalNodes>
            0 -1 323 -6.4182784408330917e-003</internalNodes>
          <leafValues>
            2.6135787367820740e-001 -6.4777612686157227e-002</leafValues></_>
        <_>
          <internalNodes>
            0 -1 433 -6.2805628404021263e-003</internalNodes>
          <leafValues>
            -4.9478554725646973e-001 3.7638604640960693e-002</leafValues></_>
        <_>
          <internalNodes>
            0 -1 334 -9.5320516265928745e-004</internalNodes>
          <leafValues>
            -1.3993546366691589e-001 1.2641710042953491e-001</leafValues></_>
        <_>
          <internalNodes>
            0 -1 305 -6.4701461233198643e-003</internalNodes>
          <leafValues>
            -6.5650540590286255e-001 3.0477873980998993e-002</leafValues></_>
        <_>
          <internalNodes>
            0 -1 485 6.5384232439100742e-003</internalNodes>
          <leafValues>
            3.1320270150899887e-002 -5.4686599969863892e-001</leafValues></_>
        <_>
          <internalNodes>
            0 -1 243 8.5601992905139923e-003</internalNodes>
          <leafValues>
            -7.8739024698734283e-002 2.6147487759590149e-001</leafValues></_>
        <_>
          <internalNodes>
            0 -1 32 -1.6709000337868929e-003</internalNodes>
          <leafValues>
            -1.8320295214653015e-001 1.0536667704582214e-001</leafValues></_>
        <_>
          <internalNodes>
            0 -1 45 -3.2519781962037086e-003</internalNodes>
          <leafValues>
            2.5442355871200562e-001 -7.6768212020397186e-002</leafValues></_>
        <_>
          <internalNodes>
            0 -1 293 -7.4914973229169846e-003</internalNodes>
          <leafValues>
            1.5731033682823181e-001 -1.1696527898311615e-001</leafValues></_>
        <_>
          <internalNodes>
            0 -1 3 2.0898547023534775e-002</internalNodes>
          <leafValues>
            -9.8969250917434692e-002 1.9840043783187866e-001</leafValues></_>
        <_>
          <internalNodes>
            0 -1 572 3.1628920696675777e-003</internalNodes>
          <leafValues>
            -1.0339498519897461e-001 1.8143890798091888e-001</leafValues></_>
        <_>
          <internalNodes>
            0 -1 412 -5.1991324871778488e-003</internalNodes>
          <leafValues>
            2.1577487885951996e-001 -9.3531094491481781e-002</leafValues></_>
        <_>
          <internalNodes>
            0 -1 4 -1.0617424268275499e-003</internalNodes>
          <leafValues>
            1.4276164770126343e-001 -1.3999275863170624e-001</leafValues></_>
        <_>
          <internalNodes>
            0 -1 350 3.3800393342971802e-002</internalNodes>
          <leafValues>
            3.0420830473303795e-002 -5.8701968193054199e-001</leafValues></_>
        <_>
          <internalNodes>
            0 -1 649 -5.6440019980072975e-003</internalNodes>
          <leafValues>
            1.8745280802249908e-001 -1.0397088527679443e-001</leafValues></_>
        <_>
          <internalNodes>
            0 -1 641 4.8919431865215302e-003</internalNodes>
          <leafValues>
            2.9836878180503845e-002 -6.7446875572204590e-001</leafValues></_>
        <_>
          <internalNodes>
            0 -1 316 -1.1591147631406784e-002</internalNodes>
          <leafValues>
            -6.7187553644180298e-001 2.2331926971673965e-002</leafValues></_>
        <_>
          <internalNodes>
            0 -1 386 1.2017536908388138e-002</internalNodes>
          <leafValues>
            -9.8371304571628571e-002 1.8054765462875366e-001</leafValues></_>
        <_>
          <internalNodes>
            0 -1 493 1.6892090439796448e-002</internalNodes>
          <leafValues>
            3.5083770751953125e-002 -5.3366780281066895e-001</leafValues></_>
        <_>
          <internalNodes>
            0 -1 120 -1.5844441950321198e-003</internalNodes>
          <leafValues>
            1.5683574974536896e-001 -1.1736913025379181e-001</leafValues></_>
        <_>
          <internalNodes>
            0 -1 696 2.2041015326976776e-003</internalNodes>
          <leafValues>
            6.7041322588920593e-002 -2.4743635952472687e-001</leafValues></_>
        <_>
          <internalNodes>
            0 -1 312 2.0552384667098522e-003</internalNodes>
          <leafValues>
            -7.4142381548881531e-002 2.4618758261203766e-001</leafValues></_>
        <_>
          <internalNodes>
            0 -1 479 1.1295815929770470e-003</internalNodes>
          <leafValues>
            -1.1393689364194870e-001 1.6060352325439453e-001</leafValues></_>
        <_>
          <internalNodes>
            0 -1 538 -9.5415522810071707e-004</internalNodes>
          <leafValues>
            2.0351725816726685e-001 -1.0436213761568069e-001</leafValues></_>
        <_>
          <internalNodes>
            0 -1 136 -1.9351034425199032e-003</internalNodes>
          <leafValues>
            2.1469214558601379e-001 -8.2331225275993347e-002</leafValues></_>
        <_>
          <internalNodes>
            0 -1 583 -1.0827340185642242e-002</internalNodes>
          <leafValues>
            -4.8631966114044189e-001 3.7363234907388687e-002</leafValues></_>
        <_>
          <internalNodes>
            0 -1 469 -6.3739558681845665e-003</internalNodes>
          <leafValues>
            -7.0227688550949097e-001 2.3048503324389458e-002</leafValues></_>
        <_>
          <internalNodes>
            0 -1 653 6.1299023218452930e-004</internalNodes>
          <leafValues>
            -9.5416739583015442e-002 1.8039573729038239e-001</leafValues></_>
        <_>
          <internalNodes>
            0 -1 656 -8.9957728050649166e-004</internalNodes>
          <leafValues>
            1.8281383812427521e-001 -9.9589817225933075e-002</leafValues></_>
        <_>
          <internalNodes>
            0 -1 49 -6.1701554805040359e-003</internalNodes>
          <leafValues>
            1.3347011804580688e-001 -1.2784828245639801e-001</leafValues></_>
        <_>
          <internalNodes>
            0 -1 205 -6.7310798913240433e-003</internalNodes>
          <leafValues>
            -6.0270804166793823e-001 3.3587247133255005e-002</leafValues></_>
        <_>
          <internalNodes>
            0 -1 518 2.9317438602447510e-003</internalNodes>
          <leafValues>
            -1.1413875967264175e-001 1.4654733240604401e-001</leafValues></_>
        <_>
          <internalNodes>
            0 -1 682 -6.6016067285090685e-004</internalNodes>
          <leafValues>
            2.0161868631839752e-001 -1.0294954478740692e-001</leafValues></_>
        <_>
          <internalNodes>
            0 -1 177 -4.1898814961314201e-003</internalNodes>
          <leafValues>
            -3.8181078433990479e-001 4.4102616608142853e-002</leafValues></_>
        <_>
          <internalNodes>
            0 -1 43 5.5419490672647953e-004</internalNodes>
          <leafValues>
            -1.2224152684211731e-001 1.4730358123779297e-001</leafValues></_>
        <_>
          <internalNodes>
            0 -1 109 1.0618080850690603e-003</internalNodes>
          <leafValues>
            -8.4800608456134796e-002 1.9439645111560822e-001</leafValues></_>
        <_>
          <internalNodes>
            0 -1 256 3.7832744419574738e-002</internalNodes>
          <leafValues>
            3.9148252457380295e-002 -4.4197154045104980e-001</leafValues></_>
        <_>
          <internalNodes>
            0 -1 423 -4.0865305811166763e-002</internalNodes>
          <leafValues>
            4.7470721602439880e-001 -3.8358863443136215e-002</leafValues></_>
        <_>
          <internalNodes>
            0 -1 596 -4.2722895741462708e-003</internalNodes>
          <leafValues>
            -6.6066360473632813e-001 2.8957553207874298e-002</leafValues></_>
        <_>
          <internalNodes>
            0 -1 675 8.9095951989293098e-004</internalNodes>
          <leafValues>
            -8.2994133234024048e-002 2.0061592757701874e-001</leafValues></_>
        <_>
          <internalNodes>
            0 -1 677 1.8282058881595731e-003</internalNodes>
          <leafValues>
            5.7329054921865463e-002 -2.9207140207290649e-001</leafValues></_>
        <_>
          <internalNodes>
            0 -1 644 -4.0849242359399796e-003</internalNodes>
          <leafValues>
            -5.5315738916397095e-001 2.9564740136265755e-002</leafValues></_>
        <_>
          <internalNodes>
            0 -1 186 1.4278462156653404e-002</internalNodes>
          <leafValues>
            3.1896997243165970e-002 -5.4131603240966797e-001</leafValues></_>
        <_>
          <internalNodes>
            0 -1 258 5.7784845121204853e-003</internalNodes>
          <leafValues>
            1.3288252055644989e-002 -8.8981449604034424e-001</leafValues></_>
        <_>
          <internalNodes>
            0 -1 68 -1.4406337868422270e-003</internalNodes>
          <leafValues>
            1.9119822978973389e-001 -9.1059260070323944e-002</leafValues></_>
        <_>
          <internalNodes>
            0 -1 16 -4.2946822941303253e-002</internalNodes>
          <leafValues>
            4.4725835323333740e-001 -3.9817467331886292e-002</leafValues></_>
        <_>
          <internalNodes>
            0 -1 606 8.5021241102367640e-004</internalNodes>
          <leafValues>
            -1.0145510733127594e-001 1.7050707340240479e-001</leafValues></_>
        <_>
          <internalNodes>
            0 -1 77 -5.0720013678073883e-003</internalNodes>
          <leafValues>
            -7.0674395561218262e-001 2.8579546138644218e-002</leafValues></_></weakClassifiers></_>
    <!-- stage 4 -->
    <_>
      <maxWeakCount>82</maxWeakCount>
      <stageThreshold>-6.4230114221572876e-001</stageThreshold>
      <weakClassifiers>
        <_>
          <internalNodes>
            0 -1 328 8.8664619252085686e-003</internalNodes>
          <leafValues>
            2.5303456187248230e-001 6.4157706499099731e-001</leafValues></_>
        <_>
          <internalNodes>
            0 -1 288 7.7878590673208237e-003</internalNodes>
          <leafValues>
            -5.9902630746364594e-002 2.9178106784820557e-001</leafValues></_>
        <_>
          <internalNodes>
            0 -1 422 4.7067198902368546e-003</internalNodes>
          <leafValues>
            -1.0090133547782898e-001 2.6143249869346619e-001</leafValues></_>
        <_>
          <internalNodes>
            0 -1 491 4.4241934083402157e-003</internalNodes>
          <leafValues>
            1.9645038992166519e-002 -6.7289537191390991e-001</leafValues></_>
        <_>
          <internalNodes>
            0 -1 487 2.4586559738963842e-003</internalNodes>
          <leafValues>
            -1.1847998946905136e-001 1.6291989386081696e-001</leafValues></_>
        <_>
          <internalNodes>
            0 -1 613 -6.3015468185767531e-004</internalNodes>
          <leafValues>
            1.8710412085056305e-001 -1.0703413188457489e-001</leafValues></_>
        <_>
          <internalNodes>
            0 -1 544 -7.5055658817291260e-004</internalNodes>
          <leafValues>
            1.5307188034057617e-001 -1.1809486150741577e-001</leafValues></_>
        <_>
          <internalNodes>
            0 -1 366 -3.7064820528030396e-002</internalNodes>
          <leafValues>
            -5.3967922925949097e-001 3.6854077130556107e-002</leafValues></_>
        <_>
          <internalNodes>
            0 -1 471 -6.2326630577445030e-003</internalNodes>
          <leafValues>
            2.3672643303871155e-001 -7.9432465136051178e-002</leafValues></_>
        <_>
          <internalNodes>
            0 -1 519 4.5337285846471786e-003</internalNodes>
          <leafValues>
            3.7533622235059738e-002 -6.2191200256347656e-001</leafValues></_>
        <_>
          <internalNodes>
            0 -1 430 1.8515495583415031e-002</internalNodes>
          <leafValues>
            5.3511895239353180e-002 -3.4831103682518005e-001</leafValues></_>
        <_>
          <internalNodes>
            0 -1 237 2.1768012084066868e-003</internalNodes>
          <leafValues>
            -8.6736403405666351e-002 2.1800218522548676e-001</leafValues></_>
        <_>
          <internalNodes>
            0 -1 337 3.4106767270714045e-003</internalNodes>
          <leafValues>
            3.2558735460042953e-002 -5.2746611833572388e-001</leafValues></_>
        <_>
          <internalNodes>
            0 -1 237 -1.9471854902803898e-003</internalNodes>
          <leafValues>
            2.2047138214111328e-001 -8.3026431500911713e-002</leafValues></_>
        <_>
          <internalNodes>
            0 -1 132 1.4476843178272247e-002</internalNodes>
          <leafValues>
            -4.6871390193700790e-002 3.4678640961647034e-001</leafValues></_>
        <_>
          <internalNodes>
            0 -1 40 7.2936655487865210e-004</internalNodes>
          <leafValues>
            -1.2964689731597900e-001 1.4643344283103943e-001</leafValues></_>
        <_>
          <internalNodes>
            0 -1 65 6.9349855184555054e-003</internalNodes>
          <leafValues>
            5.4012089967727661e-002 -3.6102813482284546e-001</leafValues></_>
        <_>
          <internalNodes>
            0 -1 96 2.7064341120421886e-003</internalNodes>
          <leafValues>
            -1.0848943889141083e-001 1.7161878943443298e-001</leafValues></_>
        <_>
          <internalNodes>
            0 -1 220 -1.9205097109079361e-002</internalNodes>
          <leafValues>
            3.9372640848159790e-001 -4.6653624624013901e-002</leafValues></_>
        <_>
          <internalNodes>
            0 -1 61 -7.0244548842310905e-003</internalNodes>
          <leafValues>
            -4.4146120548248291e-001 4.4265110045671463e-002</leafValues></_>
        <_>
          <internalNodes>
            0 -1 398 -5.1437481306493282e-003</internalNodes>
          <leafValues>
            2.9100430011749268e-001 -6.2279041856527328e-002</leafValues></_>
        <_>
          <internalNodes>
            0 -1 176 -1.1768151074647903e-002</internalNodes>
          <leafValues>
            1.9027440249919891e-001 -8.8580355048179626e-002</leafValues></_>
        <_>
          <internalNodes>
            0 -1 322 2.5926122907549143e-003</internalNodes>
          <leafValues>
            -7.8777067363262177e-002 2.1816131472587585e-001</leafValues></_>
        <_>
          <internalNodes>
            0 -1 383 -4.9934461712837219e-003</internalNodes>
          <leafValues>
            -5.0757211446762085e-001 3.5374768078327179e-002</leafValues></_>
        <_>
          <internalNodes>
            0 -1 621 2.6807687245309353e-003</internalNodes>
          <leafValues>
            3.5602476447820663e-002 -4.7068437933921814e-001</leafValues></_>
        <_>
          <internalNodes>
            0 -1 95 1.7344764200970531e-003</internalNodes>
          <leafValues>
            -1.2392377853393555e-001 1.4635422825813293e-001</leafValues></_>
        <_>
          <internalNodes>
            0 -1 678 -2.8647713363170624e-002</internalNodes>
          <leafValues>
            3.0732947587966919e-001 -6.0509283095598221e-002</leafValues></_>
        <_>
          <internalNodes>
            0 -1 358 -6.8105985410511494e-003</internalNodes>
          <leafValues>
            -6.3193392753601074e-001 3.0305353924632072e-002</leafValues></_>
        <_>
          <internalNodes>
            0 -1 709 -1.3319299323484302e-003</internalNodes>
          <leafValues>
            -2.7184861898422241e-001 5.9736572206020355e-002</leafValues></_>
        <_>
          <internalNodes>
            0 -1 283 9.9605228751897812e-003</internalNodes>
          <leafValues>
            -5.8316241949796677e-002 2.8786939382553101e-001</leafValues></_>
        <_>
          <internalNodes>
            0 -1 339 1.0736314579844475e-003</internalNodes>
          <leafValues>
            -1.0603959113359451e-001 1.6784656047821045e-001</leafValues></_>
        <_>
          <internalNodes>
            0 -1 554 -4.8614088445901871e-003</internalNodes>
          <leafValues>
            4.0209704637527466e-001 -4.0776330977678299e-002</leafValues></_>
        <_>
          <internalNodes>
            0 -1 550 -1.0641859844326973e-003</internalNodes>
          <leafValues>
            1.5369094908237457e-001 -1.1414561420679092e-001</leafValues></_>
        <_>
          <internalNodes>
            0 -1 306 -3.9109466597437859e-003</internalNodes>
          <leafValues>
            -5.4663723707199097e-001 3.4214217215776443e-002</leafValues></_>
        <_>
          <internalNodes>
            0 -1 79 -2.1313622593879700e-002</internalNodes>
          <leafValues>
            -6.7477375268936157e-001 2.2215213626623154e-002</leafValues></_>
        <_>
          <internalNodes>
            0 -1 307 -4.5746127143502235e-003</internalNodes>
          <leafValues>
            2.4993176758289337e-001 -7.1105942130088806e-002</leafValues></_>
        <_>
          <internalNodes>
            0 -1 157 1.0160366073250771e-002</internalNodes>
          <leafValues>
            -6.3679784536361694e-002 2.7053931355476379e-001</leafValues></_>
        <_>
          <internalNodes>
            0 -1 436 1.7702345503494143e-003</internalNodes>
          <leafValues>
            -8.6053855717182159e-002 2.1735616028308868e-001</leafValues></_>
        <_>
          <internalNodes>
            0 -1 147 -3.6664918065071106e-002</internalNodes>
          <leafValues>
            2.4107089638710022e-001 -8.0312669277191162e-002</leafValues></_>
        <_>
          <internalNodes>
            0 -1 262 -2.4795266799628735e-003</internalNodes>
          <leafValues>
            1.3316904008388519e-001 -1.4353132247924805e-001</leafValues></_>
        <_>
          <internalNodes>
            0 -1 213 -4.0938459336757660e-002</internalNodes>
          <leafValues>
            -2.8343790769577026e-001 8.2784608006477356e-002</leafValues></_>
        <_>
          <internalNodes>
            0 -1 212 2.4753857869654894e-003</internalNodes>
          <leafValues>
            5.1578402519226074e-002 -3.7396472692489624e-001</leafValues></_>
        <_>
          <internalNodes>
            0 -1 390 6.6817607730627060e-003</internalNodes>
          <leafValues>
            -6.0029316693544388e-002 2.8059324622154236e-001</leafValues></_>
        <_>
          <internalNodes>
            0 -1 432 7.4352044612169266e-003</internalNodes>
          <leafValues>
            2.0271081477403641e-002 -8.8689142465591431e-001</leafValues></_>
        <_>
          <internalNodes>
            0 -1 673 -1.3553358148783445e-003</internalNodes>
          <leafValues>
            2.2364255785942078e-001 -7.9480245709419250e-002</leafValues></_>
        <_>
          <internalNodes>
            0 -1 555 -3.2145746517926455e-003</internalNodes>
          <leafValues>
            -4.8108795285224915e-001 3.7064928561449051e-002</leafValues></_>
        <_>
          <internalNodes>
            0 -1 667 1.8033768981695175e-002</internalNodes>
          <leafValues>
            -3.7025738507509232e-002 4.9360185861587524e-001</leafValues></_>
        <_>
          <internalNodes>
            0 -1 535 -9.3268424272537231e-002</internalNodes>
          <leafValues>
            -3.7924057245254517e-001 5.5336929857730865e-002</leafValues></_>
        <_>
          <internalNodes>
            0 -1 585 4.7472440637648106e-003</internalNodes>
          <leafValues>
            3.4962352365255356e-002 -4.7216972708702087e-001</leafValues></_>
        <_>
          <internalNodes>
            0 -1 127 6.8259430117905140e-003</internalNodes>
          <leafValues>
            -7.1512304246425629e-002 2.5107628107070923e-001</leafValues></_>
        <_>
          <internalNodes>
            0 -1 124 -2.0256670191884041e-002</internalNodes>
          <leafValues>
            -2.1634878218173981e-001 8.8600262999534607e-002</leafValues></_>
        <_>
          <internalNodes>
            0 -1 655 -9.0723475441336632e-003</internalNodes>
          <leafValues>
            -3.3460691571235657e-001 5.1289636641740799e-002</leafValues></_>
        <_>
          <internalNodes>
            0 -1 68 2.5581265799701214e-003</internalNodes>
          <leafValues>
            -7.2720929980278015e-002 2.4443545937538147e-001</leafValues></_>
        <_>
          <internalNodes>
            0 -1 639 -2.2784797474741936e-003</internalNodes>
          <leafValues>
            -1.8748176097869873e-001 9.4508640468120575e-002</leafValues></_>
        <_>
          <internalNodes>
            0 -1 419 8.6508234962821007e-003</internalNodes>
          <leafValues>
            3.8322731852531433e-002 -5.0274223089218140e-001</leafValues></_>
        <_>
          <internalNodes>
            0 -1 287 -3.6765558179467916e-003</internalNodes>
          <leafValues>
            1.4725717902183533e-001 -1.1122976988554001e-001</leafValues></_>
        <_>
          <internalNodes>
            0 -1 526 -4.2899944819509983e-003</internalNodes>
          <leafValues>
            -6.9073659181594849e-001 2.3775560781359673e-002</leafValues></_>
        <_>
          <internalNodes>
            0 -1 1 -1.2436539866030216e-002</internalNodes>
          <leafValues>
            1.9425243139266968e-001 -8.7821446359157562e-002</leafValues></_>
        <_>
          <internalNodes>
            0 -1 224 2.7498933486640453e-003</internalNodes>
          <leafValues>
            -1.0418674349784851e-001 1.5681466460227966e-001</leafValues></_>
        <_>
          <internalNodes>
            0 -1 484 -4.3247453868389130e-003</internalNodes>
          <leafValues>
            -5.0223213434219360e-001 3.2519225031137466e-002</leafValues></_>
        <_>
          <internalNodes>
            0 -1 685 -9.7012042533606291e-004</internalNodes>
          <leafValues>
            1.5249861776828766e-001 -1.0216464847326279e-001</leafValues></_>
        <_>
          <internalNodes>
            0 -1 592 -2.3643765598535538e-003</internalNodes>
          <leafValues>
            2.0537039637565613e-001 -8.0884121358394623e-002</leafValues></_>
        <_>
          <internalNodes>
            0 -1 540 1.2536458671092987e-002</internalNodes>
          <leafValues>
            3.4192573279142380e-002 -6.0297936201095581e-001</leafValues></_>
        <_>
          <internalNodes>
            0 -1 632 -8.3405023906379938e-004</internalNodes>
          <leafValues>
            1.6398429870605469e-001 -1.0582714527845383e-001</leafValues></_>
        <_>
          <internalNodes>
            0 -1 651 8.0927240196615458e-004</internalNodes>
          <leafValues>
            -8.9434772729873657e-002 2.0333822071552277e-001</leafValues></_>
        <_>
          <internalNodes>
            0 -1 48 2.0480537787079811e-003</internalNodes>
          <leafValues>
            7.8839138150215149e-002 -2.4905349314212799e-001</leafValues></_>
        <_>
          <internalNodes>
            0 -1 513 -6.0796323232352734e-003</internalNodes>
          <leafValues>
            -5.3483241796493530e-001 2.9897080734372139e-002</leafValues></_>
        <_>
          <internalNodes>
            0 -1 202 -1.0388626158237457e-001</internalNodes>
          <leafValues>
            -4.9059870839118958e-001 3.0357351526618004e-002</leafValues></_>
        <_>
          <internalNodes>
            0 -1 277 2.2018742747604847e-003</internalNodes>
          <leafValues>
            -9.6688315272331238e-002 1.9829893112182617e-001</leafValues></_>
        <_>
          <internalNodes>
            0 -1 284 -1.3323163148015738e-003</internalNodes>
          <leafValues>
            2.6409709453582764e-001 -7.3409594595432281e-002</leafValues></_>
        <_>
          <internalNodes>
            0 -1 381 -7.1199296507984400e-004</internalNodes>
          <leafValues>
            1.2647180259227753e-001 -1.5107476711273193e-001</leafValues></_>
        <_>
          <internalNodes>
            0 -1 449 7.1972613222897053e-003</internalNodes>
          <leafValues>
            3.5246785730123520e-002 -5.8055686950683594e-001</leafValues></_>
        <_>
          <internalNodes>
            0 -1 2 -8.6783152073621750e-003</internalNodes>
          <leafValues>
            2.6354199647903442e-001 -7.0424020290374756e-002</leafValues></_>
        <_>
          <internalNodes>
            0 -1 169 3.3429716713726521e-003</internalNodes>
          <leafValues>
            4.1627507656812668e-002 -4.5002245903015137e-001</leafValues></_>
        <_>
          <internalNodes>
            0 -1 720 -3.8992832414805889e-003</internalNodes>
          <leafValues>
            4.9314185976982117e-001 -3.6801833659410477e-002</leafValues></_>
        <_>
          <internalNodes>
            0 -1 84 1.8834996735677123e-003</internalNodes>
          <leafValues>
            6.9696277379989624e-002 -2.7090701460838318e-001</leafValues></_>
        <_>
          <internalNodes>
            0 -1 53 -2.6205892208963633e-003</internalNodes>
          <leafValues>
            1.8053543567657471e-001 -9.1033406555652618e-002</leafValues></_>
        <_>
          <internalNodes>
            0 -1 21 -1.9134601578116417e-002</internalNodes>
          <leafValues>
            3.1701058149337769e-001 -5.4824966937303543e-002</leafValues></_>
        <_>
          <internalNodes>
            0 -1 453 -1.4970468357205391e-002</internalNodes>
          <leafValues>
            2.4241779744625092e-001 -6.9602973759174347e-002</leafValues></_>
        <_>
          <internalNodes>
            0 -1 242 3.8954163901507854e-003</internalNodes>
          <leafValues>
            3.4347023814916611e-002 -4.9708661437034607e-001</leafValues></_>
        <_>
          <internalNodes>
            0 -1 279 1.0265756864100695e-003</internalNodes>
          <leafValues>
            -7.7100358903408051e-002 2.3522721230983734e-001</leafValues></_>
        <_>
          <internalNodes>
            0 -1 126 -1.8649179255589843e-003</internalNodes>
          <leafValues>
            -1.9118882715702057e-001 8.5532933473587036e-002</leafValues></_></weakClassifiers></_>
    <!-- stage 5 -->
    <_>
      <maxWeakCount>85</maxWeakCount>
      <stageThreshold>-5.8359086513519287e-001</stageThreshold>
      <weakClassifiers>
        <_>
          <internalNodes>
            0 -1 331 -1.1839782819151878e-003</internalNodes>
          <leafValues>
            5.4239571094512939e-001 2.5396013259887695e-001</leafValues></_>
        <_>
          <internalNodes>
            0 -1 593 -3.0277413316071033e-003</internalNodes>
          <leafValues>
            1.8936422467231750e-001 -9.2585690319538116e-002</leafValues></_>
        <_>
          <internalNodes>
            0 -1 310 8.7139941751956940e-003</internalNodes>
          <leafValues>
            -1.0128215700387955e-001 3.0834624171257019e-001</leafValues></_>
        <_>
          <internalNodes>
            0 -1 267 -2.3633851669728756e-003</internalNodes>
          <leafValues>
            2.8683474659919739e-001 -7.4272140860557556e-002</leafValues></_>
        <_>
          <internalNodes>
            0 -1 259 -1.9447470549494028e-003</internalNodes>
          <leafValues>
            2.1949706971645355e-001 -9.7598537802696228e-002</leafValues></_>
        <_>
          <internalNodes>
            0 -1 309 -8.7416393216699362e-004</internalNodes>
          <leafValues>
            1.7109513282775879e-001 -1.2726263701915741e-001</leafValues></_>
        <_>
          <internalNodes>
            0 -1 310 1.0096421465277672e-002</internalNodes>
          <leafValues>
            4.8573885113000870e-002 -5.7868313789367676e-001</leafValues></_>
        <_>
          <internalNodes>
            0 -1 310 1.0187263600528240e-002</internalNodes>
          <leafValues>
            -3.6301203072071075e-002 4.7653773427009583e-001</leafValues></_>
        <_>
          <internalNodes>
            0 -1 80 2.5291624478995800e-003</internalNodes>
          <leafValues>
            -5.5473711341619492e-002 2.8105801343917847e-001</leafValues></_>
        <_>
          <internalNodes>
            0 -1 106 -3.6288436967879534e-003</internalNodes>
          <leafValues>
            2.3637643456459045e-001 -1.2218539416790009e-001</leafValues></_>
        <_>
          <internalNodes>
            0 -1 475 1.4324365183711052e-002</internalNodes>
          <leafValues>
            4.9119822680950165e-002 -4.4132518768310547e-001</leafValues></_>
        <_>
          <internalNodes>
            0 -1 560 -1.1892709881067276e-003</internalNodes>
          <leafValues>
            1.5988335013389587e-001 -1.1553847044706345e-001</leafValues></_>
        <_>
          <internalNodes>
            0 -1 506 -2.4164079222828150e-003</internalNodes>
          <leafValues>
            -3.0168095231056213e-001 7.4774093925952911e-002</leafValues></_>
        <_>
          <internalNodes>
            0 -1 663 1.7051247879862785e-002</internalNodes>
          <leafValues>
            -7.0088550448417664e-002 3.1800073385238647e-001</leafValues></_>
        <_>
          <internalNodes>
            0 -1 490 -7.2048385627567768e-003</internalNodes>
          <leafValues>
            2.6926550269126892e-001 -9.6468649804592133e-002</leafValues></_>
        <_>
          <internalNodes>
            0 -1 573 4.4092196039855480e-003</internalNodes>
          <leafValues>
            -1.1190617829561234e-001 2.0200073719024658e-001</leafValues></_>
        <_>
          <internalNodes>
            0 -1 520 -7.4345292523503304e-003</internalNodes>
          <leafValues>
            1.7294140160083771e-001 -9.7753874957561493e-002</leafValues></_>
        <_>
          <internalNodes>
            0 -1 327 4.4789519160985947e-003</internalNodes>
          <leafValues>
            -8.4139607846736908e-002 2.6618266105651855e-001</leafValues></_>
        <_>
          <internalNodes>
            0 -1 50 -4.8989016795530915e-004</internalNodes>
          <leafValues>
            1.4847038686275482e-001 -1.1565978080034256e-001</leafValues></_>
        <_>
          <internalNodes>
            0 -1 368 -6.1418274417519569e-003</internalNodes>
          <leafValues>
            -6.5671128034591675e-001 2.9047928750514984e-002</leafValues></_>
        <_>
          <internalNodes>
            0 -1 9 -5.7456262409687042e-002</internalNodes>
          <leafValues>
            7.6106339693069458e-001 -2.3610817268490791e-002</leafValues></_>
        <_>
          <internalNodes>
            0 -1 102 -4.3268301524221897e-003</internalNodes>
          <leafValues>
            -4.8545870184898376e-001 4.0685869753360748e-002</leafValues></_>
        <_>
          <internalNodes>
            0 -1 239 1.0365166235715151e-003</internalNodes>
          <leafValues>
            -9.2209964990615845e-002 1.9085370004177094e-001</leafValues></_>
        <_>
          <internalNodes>
            0 -1 711 5.5557307787239552e-003</internalNodes>
          <leafValues>
            -6.7733362317085266e-002 2.3314964771270752e-001</leafValues></_>
        <_>
          <internalNodes>
            0 -1 597 -8.9821014553308487e-003</internalNodes>
          <leafValues>
            -4.6815708279609680e-001 3.8641389459371567e-002</leafValues></_>
        <_>
          <internalNodes>
            0 -1 531 -3.0816704966127872e-003</internalNodes>
          <leafValues>
            1.4324045181274414e-001 -1.3664273917675018e-001</leafValues></_>
        <_>
          <internalNodes>
            0 -1 601 2.3334819823503494e-002</internalNodes>
          <leafValues>
            -4.4186402112245560e-002 4.7683835029602051e-001</leafValues></_>
        <_>
          <internalNodes>
            0 -1 692 -5.3393687121570110e-003</internalNodes>
          <leafValues>
            -4.2293232679367065e-001 4.5441750437021255e-002</leafValues></_>
        <_>
          <internalNodes>
            0 -1 484 3.6846534349024296e-003</internalNodes>
          <leafValues>
            4.5997120440006256e-002 -3.6636957526206970e-001</leafValues></_>
        <_>
          <internalNodes>
            0 -1 185 -1.2897912412881851e-002</internalNodes>
          <leafValues>
            3.1529235839843750e-001 -5.7599171996116638e-002</leafValues></_>
        <_>
          <internalNodes>
            0 -1 22 -6.5382230095565319e-003</internalNodes>
          <leafValues>
            2.5334343314170837e-001 -7.0281624794006348e-002</leafValues></_>
        <_>
          <internalNodes>
            0 -1 133 2.5398693978786469e-003</internalNodes>
          <leafValues>
            -7.7821679413318634e-002 2.2492311894893646e-001</leafValues></_>
        <_>
          <internalNodes>
            0 -1 134 -9.9064521491527557e-003</internalNodes>
          <leafValues>
            -6.3966763019561768e-001 2.9867131263017654e-002</leafValues></_>
        <_>
          <internalNodes>
            0 -1 382 5.0364825874567032e-003</internalNodes>
          <leafValues>
            5.8094747364521027e-002 -2.7536091208457947e-001</leafValues></_>
        <_>
          <internalNodes>
            0 -1 196 1.9511513411998749e-002</internalNodes>
          <leafValues>
            -5.0397407263517380e-002 3.9340275526046753e-001</leafValues></_>
        <_>
          <internalNodes>
            0 -1 609 -3.5924612893722951e-004</internalNodes>
          <leafValues>
            1.6747498512268066e-001 -1.0948798805475235e-001</leafValues></_>
        <_>
          <internalNodes>
            0 -1 654 5.4454789496958256e-003</internalNodes>
          <leafValues>
            2.4022625759243965e-002 -7.3360460996627808e-001</leafValues></_>
        <_>
          <internalNodes>
            0 -1 457 -1.1275450233370066e-003</internalNodes>
          <leafValues>
            1.9545854628086090e-001 -8.3659924566745758e-002</leafValues></_>
        <_>
          <internalNodes>
            0 -1 425 1.0662071406841278e-002</internalNodes>
          <leafValues>
            2.3303648456931114e-002 -8.4864717721939087e-001</leafValues></_>
        <_>
          <internalNodes>
            0 -1 188 -2.3801652714610100e-003</internalNodes>
          <leafValues>
            1.4019972085952759e-001 -1.1861451715230942e-001</leafValues></_>
        <_>
          <internalNodes>
            0 -1 250 6.4366152510046959e-003</internalNodes>
          <leafValues>
            2.9393730685114861e-002 -5.9101468324661255e-001</leafValues></_>
        <_>
          <internalNodes>
            0 -1 228 -4.7320323064923286e-003</internalNodes>
          <leafValues>
            3.3810010552406311e-001 -5.4435819387435913e-002</leafValues></_>
        <_>
          <internalNodes>
            0 -1 459 -7.0826028240844607e-004</internalNodes>
          <leafValues>
            1.7416346073150635e-001 -9.1108076274394989e-002</leafValues></_>
        <_>
          <internalNodes>
            0 -1 110 -4.3808383634313941e-004</internalNodes>
          <leafValues>
            1.7038965225219727e-001 -9.3001142144203186e-002</leafValues></_>
        <_>
          <internalNodes>
            0 -1 392 -4.5320680364966393e-003</internalNodes>
          <leafValues>
            -5.9216290712356567e-001 2.7549738064408302e-002</leafValues></_>
        <_>
          <internalNodes>
            0 -1 604 1.6392514808103442e-003</internalNodes>
          <leafValues>
            -8.5181690752506256e-002 1.9237339496612549e-001</leafValues></_>
        <_>
          <internalNodes>
            0 -1 545 -7.6936194673180580e-003</internalNodes>
          <leafValues>
            -7.2080200910568237e-001 2.8433743864297867e-002</leafValues></_>
        <_>
          <internalNodes>
            0 -1 42 -9.7513594664633274e-004</internalNodes>
          <leafValues>
            1.5060265362262726e-001 -1.1346163600683212e-001</leafValues></_>
        <_>
          <internalNodes>
            0 -1 499 1.5798634849488735e-003</internalNodes>
          <leafValues>
            -8.0677337944507599e-002 2.0315942168235779e-001</leafValues></_>
        <_>
          <internalNodes>
            0 -1 441 -8.0718775279819965e-004</internalNodes>
          <leafValues>
            1.7552407085895538e-001 -1.0731417685747147e-001</leafValues></_>
        <_>
          <internalNodes>
            0 -1 393 4.6622343361377716e-003</internalNodes>
          <leafValues>
            4.1179135441780090e-002 -4.1808214783668518e-001</leafValues></_>
        <_>
          <internalNodes>
            0 -1 437 3.5017114132642746e-003</internalNodes>
          <leafValues>
            -7.5782097876071930e-002 2.2620087862014771e-001</leafValues></_>
        <_>
          <internalNodes>
            0 -1 625 3.2945554703474045e-003</internalNodes>
          <leafValues>
            3.1254708766937256e-002 -5.8333915472030640e-001</leafValues></_>
        <_>
          <internalNodes>
            0 -1 104 -3.6728149279952049e-003</internalNodes>
          <leafValues>
            2.8452798724174500e-001 -6.3090473413467407e-002</leafValues></_>
        <_>
          <internalNodes>
            0 -1 546 -5.1134387031197548e-003</internalNodes>
          <leafValues>
            -5.7565838098526001e-001 3.3648386597633362e-002</leafValues></_>
        <_>
          <internalNodes>
            0 -1 567 -5.1188133656978607e-003</internalNodes>
          <leafValues>
            3.7037083506584167e-001 -4.6381019055843353e-002</leafValues></_>
        <_>
          <internalNodes>
            0 -1 211 5.0676230341196060e-002</internalNodes>
          <leafValues>
            -3.9380811154842377e-002 3.8837254047393799e-001</leafValues></_>
        <_>
          <internalNodes>
            0 -1 74 -9.6691271755844355e-004</internalNodes>
          <leafValues>
            1.3582658767700195e-001 -1.1725779622793198e-001</leafValues></_>
        <_>
          <internalNodes>
            0 -1 74 -9.1583356261253357e-003</internalNodes>
          <leafValues>
            -3.3408924937248230e-001 5.0322607159614563e-002</leafValues></_>
        <_>
          <internalNodes>
            0 -1 13 3.5728788934648037e-003</internalNodes>
          <leafValues>
            -1.0291162878274918e-001 1.4817115664482117e-001</leafValues></_>
        <_>
          <internalNodes>
            0 -1 406 5.3656734526157379e-003</internalNodes>
          <leafValues>
            3.4932475537061691e-002 -5.4024559259414673e-001</leafValues></_>
        <_>
          <internalNodes>
            0 -1 570 3.9229821413755417e-003</internalNodes>
          <leafValues>
            -9.3862526118755341e-002 1.8137992918491364e-001</leafValues></_>
        <_>
          <internalNodes>
            0 -1 308 -4.4861604692414403e-004</internalNodes>
          <leafValues>
            1.7368483543395996e-001 -1.0067559778690338e-001</leafValues></_>
        <_>
          <internalNodes>
            0 -1 150 9.7117230296134949e-002</internalNodes>
          <leafValues>
            3.4903436899185181e-002 -5.4007124900817871e-001</leafValues></_>
        <_>
          <internalNodes>
            0 -1 643 -1.2366205453872681e-002</internalNodes>
          <leafValues>
            3.5835632681846619e-001 -4.7436319291591644e-002</leafValues></_>
        <_>
          <internalNodes>
            0 -1 458 -2.6345225051045418e-003</internalNodes>
          <leafValues>
            1.8977895379066467e-001 -9.0376734733581543e-002</leafValues></_>
        <_>
          <internalNodes>
            0 -1 111 1.6729518538340926e-003</internalNodes>
          <leafValues>
            -9.8661117255687714e-002 1.7856864631175995e-001</leafValues></_>
        <_>
          <internalNodes>
            0 -1 532 -3.6468654870986938e-003</internalNodes>
          <leafValues>
            1.4012567698955536e-001 -1.1707483977079391e-001</leafValues></_>
        <_>
          <internalNodes>
            0 -1 156 -1.7527762800455093e-002</internalNodes>
          <leafValues>
            -5.3977525234222412e-001 3.0332796275615692e-002</leafValues></_>
        <_>
          <internalNodes>
            0 -1 295 -3.1084445072337985e-004</internalNodes>
          <leafValues>
            1.6187147796154022e-001 -1.1170826107263565e-001</leafValues></_>
        <_>
          <internalNodes>
            0 -1 37 2.9238569550216198e-003</internalNodes>
          <leafValues>
            3.8150351494550705e-002 -4.4908738136291504e-001</leafValues></_>
        <_>
          <internalNodes>
            0 -1 496 5.4614630062133074e-004</internalNodes>
          <leafValues>
            -1.0818368196487427e-001 1.7271894216537476e-001</leafValues></_>
        <_>
          <internalNodes>
            0 -1 409 -4.9727866426110268e-003</internalNodes>
          <leafValues>
            2.5814878940582275e-001 -6.7317493259906769e-002</leafValues></_>
        <_>
          <internalNodes>
            0 -1 218 -4.9961749464273453e-003</internalNodes>
          <leafValues>
            -6.8592524528503418e-001 2.6554923504590988e-002</leafValues></_>
        <_>
          <internalNodes>
            0 -1 419 -1.4104774221777916e-002</internalNodes>
          <leafValues>
            -8.2629859447479248e-001 1.5880638733506203e-002</leafValues></_>
        <_>
          <internalNodes>
            0 -1 549 1.3967906124889851e-003</internalNodes>
          <leafValues>
            -7.3001526296138763e-002 2.5230234861373901e-001</leafValues></_>
        <_>
          <internalNodes>
            0 -1 231 1.9448369741439819e-002</internalNodes>
          <leafValues>
            6.7381173372268677e-002 -2.6693418622016907e-001</leafValues></_>
        <_>
          <internalNodes>
            0 -1 564 -6.2869186513125896e-004</internalNodes>
          <leafValues>
            1.8012002110481262e-001 -9.4289690256118774e-002</leafValues></_>
        <_>
          <internalNodes>
            0 -1 691 -2.8480661567300558e-003</internalNodes>
          <leafValues>
            -4.0231350064277649e-001 4.6203952282667160e-002</leafValues></_>
        <_>
          <internalNodes>
            0 -1 638 1.3109816238284111e-002</internalNodes>
          <leafValues>
            -5.3466998040676117e-002 3.3380457758903503e-001</leafValues></_>
        <_>
          <internalNodes>
            0 -1 580 -7.1826456114649773e-003</internalNodes>
          <leafValues>
            -6.5969234704971313e-001 2.6994632557034492e-002</leafValues></_>
        <_>
          <internalNodes>
            0 -1 402 9.8803476430475712e-004</internalNodes>
          <leafValues>
            -1.0700923949480057e-001 1.5973052382469177e-001</leafValues></_>
        <_>
          <internalNodes>
            0 -1 28 3.6651534028351307e-003</internalNodes>
          <leafValues>
            -7.8597389161586761e-002 2.0419815182685852e-001</leafValues></_>
        <_>
          <internalNodes>
            0 -1 352 -1.1487402953207493e-003</internalNodes>
          <leafValues>
            1.4445069432258606e-001 -1.1832067370414734e-001</leafValues></_>
        <_>
          <internalNodes>
            0 -1 217 -4.1124366223812103e-002</internalNodes>
          <leafValues>
            -6.6378808021545410e-001 2.7996674180030823e-002</leafValues></_></weakClassifiers></_>
    <!-- stage 6 -->
    <_>
      <maxWeakCount>94</maxWeakCount>
      <stageThreshold>-6.0420536994934082e-001</stageThreshold>
      <weakClassifiers>
        <_>
          <internalNodes>
            0 -1 410 3.1586293131113052e-002</internalNodes>
          <leafValues>
            3.5796767473220825e-001 -2.9411765933036804e-001</leafValues></_>
        <_>
          <internalNodes>
            0 -1 193 3.1384066678583622e-003</internalNodes>
          <leafValues>
            -8.8665656745433807e-002 2.0922930538654327e-001</leafValues></_>
        <_>
          <internalNodes>
            0 -1 502 1.3284723274409771e-002</internalNodes>
          <leafValues>
            -5.5279016494750977e-002 3.2188096642494202e-001</leafValues></_>
        <_>
          <internalNodes>
            0 -1 569 6.3821701332926750e-003</internalNodes>
          <leafValues>
            -9.5363788306713104e-002 2.2358296811580658e-001</leafValues></_>
        <_>
          <internalNodes>
            0 -1 461 -4.0279659442603588e-003</internalNodes>
          <leafValues>
            -3.9330160617828369e-001 3.7922568619251251e-002</leafValues></_>
        <_>
          <internalNodes>
            0 -1 633 4.4137919321656227e-003</internalNodes>
          <leafValues>
            3.1322792172431946e-002 -5.4510402679443359e-001</leafValues></_>
        <_>
          <internalNodes>
            0 -1 400 -4.7166633885353804e-004</internalNodes>
          <leafValues>
            1.5209843218326569e-001 -1.1263301223516464e-001</leafValues></_>
        <_>
          <internalNodes>
            0 -1 204 2.7375756762921810e-003</internalNodes>
          <leafValues>
            -8.8187567889690399e-002 2.1199212968349457e-001</leafValues></_>
        <_>
          <internalNodes>
            0 -1 203 1.1849274160340428e-003</internalNodes>
          <leafValues>
            -9.8102442920207977e-002 2.3726637661457062e-001</leafValues></_>
        <_>
          <internalNodes>
            0 -1 715 1.2970641255378723e-003</internalNodes>
          <leafValues>
            -1.1188101768493652e-001 1.4644972980022430e-001</leafValues></_>
        <_>
          <internalNodes>
            0 -1 266 -1.0227109305560589e-003</internalNodes>
          <leafValues>
            1.7650096118450165e-001 -9.3398243188858032e-002</leafValues></_>
        <_>
          <internalNodes>
            0 -1 415 -1.3780718669295311e-002</internalNodes>
          <leafValues>
            -4.5087549090385437e-001 3.6985699087381363e-002</leafValues></_>
        <_>
          <internalNodes>
            0 -1 359 1.8069410696625710e-002</internalNodes>
          <leafValues>
            7.3226414620876312e-002 -2.4361832439899445e-001</leafValues></_>
        <_>
          <internalNodes>
            0 -1 243 -1.4289429411292076e-002</internalNodes>
          <leafValues>
            3.0265656113624573e-001 -5.9941835701465607e-002</leafValues></_>
        <_>
          <internalNodes>
            0 -1 454 -1.3361694291234016e-002</internalNodes>
          <leafValues>
            -3.2645875215530396e-001 5.4239142686128616e-002</leafValues></_>
        <_>
          <internalNodes>
            0 -1 439 1.9173671025782824e-003</internalNodes>
          <leafValues>
            -8.7767288088798523e-002 1.9684824347496033e-001</leafValues></_>
        <_>
          <internalNodes>
            0 -1 443 -4.7663440927863121e-003</internalNodes>
          <leafValues>
            -3.3468353748321533e-001 5.5873122066259384e-002</leafValues></_>
        <_>
          <internalNodes>
            0 -1 33 -3.7852679379284382e-003</internalNodes>
          <leafValues>
            2.1899819374084473e-001 -8.1356629729270935e-002</leafValues></_>
        <_>
          <internalNodes>
            0 -1 310 5.9209121391177177e-003</internalNodes>
          <leafValues>
            -6.5547451376914978e-002 2.5719130039215088e-001</leafValues></_>
        <_>
          <internalNodes>
            0 -1 69 5.4195094853639603e-003</internalNodes>
          <leafValues>
            5.2148450165987015e-002 -3.1187325716018677e-001</leafValues></_>
        <_>
          <internalNodes>
            0 -1 51 -1.2684382963925600e-003</internalNodes>
          <leafValues>
            1.4688844978809357e-001 -1.1283390223979950e-001</leafValues></_>
        <_>
          <internalNodes>
            0 -1 255 1.3195984065532684e-002</internalNodes>
          <leafValues>
            3.0302481725811958e-002 -5.3182333707809448e-001</leafValues></_>
        <_>
          <internalNodes>
            0 -1 99 2.9584818985313177e-003</internalNodes>
          <leafValues>
            -7.4627697467803955e-002 2.2704038023948669e-001</leafValues></_>
        <_>
          <internalNodes>
            0 -1 401 -4.4310260564088821e-003</internalNodes>
          <leafValues>
            -5.5436062812805176e-001 3.2814946025609970e-002</leafValues></_>
        <_>
          <internalNodes>
            0 -1 272 9.9903903901576996e-004</internalNodes>
          <leafValues>
            -7.7927120029926300e-002 2.0218089222908020e-001</leafValues></_>
        <_>
          <internalNodes>
            0 -1 431 4.8119607381522655e-003</internalNodes>
          <leafValues>
            2.8899822384119034e-002 -5.4109704494476318e-001</leafValues></_>
        <_>
          <internalNodes>
            0 -1 431 -4.1502118110656738e-003</internalNodes>
          <leafValues>
            -3.8969191908836365e-001 4.1289441287517548e-002</leafValues></_>
        <_>
          <internalNodes>
            0 -1 723 -3.3506862819194794e-003</internalNodes>
          <leafValues>
            -3.5211920738220215e-001 4.6105168759822845e-002</leafValues></_>
        <_>
          <internalNodes>
            0 -1 66 -2.1448205225169659e-003</internalNodes>
          <leafValues>
            -2.9147484898567200e-001 5.6818295270204544e-002</leafValues></_>
        <_>
          <internalNodes>
            0 -1 577 -1.5455468092113733e-003</internalNodes>
          <leafValues>
            1.5942259132862091e-001 -1.0241965204477310e-001</leafValues></_>
        <_>
          <internalNodes>
            0 -1 578 -9.5857074484229088e-004</internalNodes>
          <leafValues>
            1.5367706120014191e-001 -1.2091948091983795e-001</leafValues></_>
        <_>
          <internalNodes>
            0 -1 91 -9.4689778052270412e-004</internalNodes>
          <leafValues>
            1.5157561004161835e-001 -1.0501048713922501e-001</leafValues></_>
        <_>
          <internalNodes>
            0 -1 103 -3.5783290513791144e-004</internalNodes>
          <leafValues>
            1.5718223154544830e-001 -1.0013283044099808e-001</leafValues></_>
        <_>
          <internalNodes>
            0 -1 389 -6.0675558634102345e-003</internalNodes>
          <leafValues>
            2.5771787762641907e-001 -6.2550537288188934e-002</leafValues></_>
        <_>
          <internalNodes>
            0 -1 146 -1.6748942434787750e-003</internalNodes>
          <leafValues>
            1.8573290109634399e-001 -8.7383762001991272e-002</leafValues></_>
        <_>
          <internalNodes>
            0 -1 35 2.0640298724174500e-002</internalNodes>
          <leafValues>
            -4.7803744673728943e-002 3.8037571310997009e-001</leafValues></_>
        <_>
          <internalNodes>
            0 -1 276 1.1676627211272717e-002</internalNodes>
          <leafValues>
            3.5700481384992599e-002 -4.8947545886039734e-001</leafValues></_>
        <_>
          <internalNodes>
            0 -1 617 -2.8216489590704441e-003</internalNodes>
          <leafValues>
            -4.4143375754356384e-001 3.2391171902418137e-002</leafValues></_>
        <_>
          <internalNodes>
            0 -1 470 1.8702017143368721e-002</internalNodes>
          <leafValues>
            -3.8363121449947357e-002 4.4925847649574280e-001</leafValues></_>
        <_>
          <internalNodes>
            0 -1 565 -1.5436577796936035e-001</internalNodes>
          <leafValues>
            6.2588751316070557e-001 -2.2785285487771034e-002</leafValues></_>
        <_>
          <internalNodes>
            0 -1 319 1.2189305853098631e-003</internalNodes>
          <leafValues>
            -6.7680507898330688e-002 2.3080281913280487e-001</leafValues></_>
        <_>
          <internalNodes>
            0 -1 463 1.4792389702051878e-003</internalNodes>
          <leafValues>
            6.1632331460714340e-002 -2.4990223348140717e-001</leafValues></_>
        <_>
          <internalNodes>
            0 -1 579 4.2085658758878708e-002</internalNodes>
          <leafValues>
            -5.1761228591203690e-002 3.0419179797172546e-001</leafValues></_>
        <_>
          <internalNodes>
            0 -1 139 -3.1528184190392494e-003</internalNodes>
          <leafValues>
            3.1322640180587769e-001 -5.0257548689842224e-002</leafValues></_>
        <_>
          <internalNodes>
            0 -1 688 -3.9186784997582436e-003</internalNodes>
          <leafValues>
            2.6460164785385132e-001 -5.8027807623147964e-002</leafValues></_>
        <_>
          <internalNodes>
            0 -1 362 -2.6192825287580490e-002</internalNodes>
          <leafValues>
            -1.6250942647457123e-001 1.0000693798065186e-001</leafValues></_>
        <_>
          <internalNodes>
            0 -1 628 -1.9152209162712097e-002</internalNodes>
          <leafValues>
            -2.7539306879043579e-001 5.8834139257669449e-002</leafValues></_>
        <_>
          <internalNodes>
            0 -1 201 1.4913126826286316e-002</internalNodes>
          <leafValues>
            -4.5753177255392075e-002 3.7405613064765930e-001</leafValues></_>
        <_>
          <internalNodes>
            0 -1 62 3.6027776077389717e-003</internalNodes>
          <leafValues>
            -8.3349026739597321e-002 1.8822339177131653e-001</leafValues></_>
        <_>
          <internalNodes>
            0 -1 117 -6.9412344601005316e-004</internalNodes>
          <leafValues>
            -2.0235911011695862e-001 7.7629275619983673e-002</leafValues></_>
        <_>
          <internalNodes>
            0 -1 210 -1.2998415622860193e-003</internalNodes>
          <leafValues>
            -1.8531070649623871e-001 8.2982949912548065e-002</leafValues></_>
        <_>
          <internalNodes>
            0 -1 209 3.3273012377321720e-003</internalNodes>
          <leafValues>
            3.1510140746831894e-002 -4.5403030514717102e-001</leafValues></_>
        <_>
          <internalNodes>
            0 -1 142 1.4413502067327499e-002</internalNodes>
          <leafValues>
            -3.2564956694841385e-002 5.2176517248153687e-001</leafValues></_>
        <_>
          <internalNodes>
            0 -1 187 1.0920645669102669e-002</internalNodes>
          <leafValues>
            9.8094016313552856e-002 -1.6615127027034760e-001</leafValues></_>
        <_>
          <internalNodes>
            0 -1 236 -3.1091645359992981e-003</internalNodes>
          <leafValues>
            -4.2902281880378723e-001 3.9659187197685242e-002</leafValues></_>
        <_>
          <internalNodes>
            0 -1 629 1.1112019419670105e-002</internalNodes>
          <leafValues>
            -4.5099861919879913e-002 3.5921832919120789e-001</leafValues></_>
        <_>
          <internalNodes>
            0 -1 645 -1.9486895762383938e-003</internalNodes>
          <leafValues>
            2.0291733741760254e-001 -8.7506853044033051e-002</leafValues></_>
        <_>
          <internalNodes>
            0 -1 724 -5.5007999762892723e-003</internalNodes>
          <leafValues>
            -4.8759546875953674e-001 3.1310252845287323e-002</leafValues></_>
        <_>
          <internalNodes>
            0 -1 536 -7.7806605258956552e-004</internalNodes>
          <leafValues>
            1.6675005853176117e-001 -8.9001081883907318e-002</leafValues></_>
        <_>
          <internalNodes>
            0 -1 348 9.6451148390769958e-002</internalNodes>
          <leafValues>
            2.4040257558226585e-002 -6.8726086616516113e-001</leafValues></_>
        <_>
          <internalNodes>
            0 -1 151 2.5313746184110641e-002</internalNodes>
          <leafValues>
            -9.8489999771118164e-002 2.0069110393524170e-001</leafValues></_>
        <_>
          <internalNodes>
            0 -1 516 -3.3106688410043716e-002</internalNodes>
          <leafValues>
            -3.8879886269569397e-001 4.1348721832036972e-002</leafValues></_>
        <_>
          <internalNodes>
            0 -1 166 1.3997916132211685e-002</internalNodes>
          <leafValues>
            -7.3242969810962677e-002 2.2111332416534424e-001</leafValues></_>
        <_>
          <internalNodes>
            0 -1 23 -7.5332164764404297e-002</internalNodes>
          <leafValues>
            -2.7043586969375610e-001 6.6645108163356781e-002</leafValues></_>
        <_>
          <internalNodes>
            0 -1 252 6.3203364610671997e-002</internalNodes>
          <leafValues>
            2.3798339068889618e-002 -7.1284621953964233e-001</leafValues></_>
        <_>
          <internalNodes>
            0 -1 125 5.3198374807834625e-002</internalNodes>
          <leafValues>
            -2.8247792273759842e-002 6.0407340526580811e-001</leafValues></_>
        <_>
          <internalNodes>
            0 -1 165 -2.3424651473760605e-002</internalNodes>
          <leafValues>
            -3.2365271449089050e-001 5.0984829664230347e-002</leafValues></_>
        <_>
          <internalNodes>
            0 -1 353 7.6802829280495644e-003</internalNodes>
          <leafValues>
            2.1492967382073402e-002 -6.9424211978912354e-001</leafValues></_>
        <_>
          <internalNodes>
            0 -1 679 3.0200321227312088e-002</internalNodes>
          <leafValues>
            -2.6753038167953491e-002 6.6888236999511719e-001</leafValues></_>
        <_>
          <internalNodes>
            0 -1 399 -5.8454894315218553e-005</internalNodes>
          <leafValues>
            1.2167490273714066e-001 -1.2563426792621613e-001</leafValues></_>
        <_>
          <internalNodes>
            0 -1 528 -1.8549950327724218e-003</internalNodes>
          <leafValues>
            1.6914993524551392e-001 -9.1969318687915802e-002</leafValues></_>
        <_>
          <internalNodes>
            0 -1 506 2.7880924753844738e-003</internalNodes>
          <leafValues>
            5.4642532020807266e-002 -3.0045604705810547e-001</leafValues></_>
        <_>
          <internalNodes>
            0 -1 396 1.6025600489228964e-003</internalNodes>
          <leafValues>
            -9.8404213786125183e-002 1.6213600337505341e-001</leafValues></_>
        <_>
          <internalNodes>
            0 -1 190 7.6882764697074890e-002</internalNodes>
          <leafValues>
            2.0509770140051842e-002 -8.3320766687393188e-001</leafValues></_>
        <_>
          <internalNodes>
            0 -1 558 5.5147642269730568e-003</internalNodes>
          <leafValues>
            4.0583681315183640e-002 -3.3941212296485901e-001</leafValues></_>
        <_>
          <internalNodes>
            0 -1 222 -6.8987272679805756e-003</internalNodes>
          <leafValues>
            -1.5573973953723907e-001 9.5395289361476898e-002</leafValues></_>
        <_>
          <internalNodes>
            0 -1 495 -3.3484527375549078e-003</internalNodes>
          <leafValues>
            2.1429619193077087e-001 -7.1368873119354248e-002</leafValues></_>
        <_>
          <internalNodes>
            0 -1 511 -5.0647038733586669e-004</internalNodes>
          <leafValues>
            1.6983272135257721e-001 -9.0681068599224091e-002</leafValues></_>
        <_>
          <internalNodes>
            0 -1 510 4.1430676355957985e-003</internalNodes>
          <leafValues>
            -6.7066065967082977e-002 2.4977965652942657e-001</leafValues></_>
        <_>
          <internalNodes>
            0 -1 181 -8.4547884762287140e-003</internalNodes>
          <leafValues>
            1.7348137497901917e-001 -9.9105097353458405e-002</leafValues></_>
        <_>
          <internalNodes>
            0 -1 87 -6.6672548651695251e-002</internalNodes>
          <leafValues>
            5.1120620965957642e-001 -3.5393562167882919e-002</leafValues></_>
        <_>
          <internalNodes>
            0 -1 559 -4.4212918728590012e-003</internalNodes>
          <leafValues>
            -5.9946584701538086e-001 3.4024227410554886e-002</leafValues></_>
        <_>
          <internalNodes>
            0 -1 41 -1.9154251785948873e-003</internalNodes>
          <leafValues>
            1.3123013079166412e-001 -1.1813941597938538e-001</leafValues></_>
        <_>
          <internalNodes>
            0 -1 10 -7.3664300143718719e-003</internalNodes>
          <leafValues>
            1.9777123630046844e-001 -8.2973413169384003e-002</leafValues></_>
        <_>
          <internalNodes>
            0 -1 522 3.3762887120246887e-002</internalNodes>
          <leafValues>
            -4.3589517474174500e-002 3.6156621575355530e-001</leafValues></_>
        <_>
          <internalNodes>
            0 -1 290 -3.0900415731593966e-004</internalNodes>
          <leafValues>
            -1.5666706860065460e-001 9.8185993731021881e-002</leafValues></_>
        <_>
          <internalNodes>
            0 -1 481 -2.3379333317279816e-002</internalNodes>
          <leafValues>
            5.9695088863372803e-001 -2.4268556386232376e-002</leafValues></_>
        <_>
          <internalNodes>
            0 -1 666 3.2615894451737404e-004</internalNodes>
          <leafValues>
            1.1470609158277512e-001 -1.3082376122474670e-001</leafValues></_>
        <_>
          <internalNodes>
            0 -1 195 -5.6440373882651329e-003</internalNodes>
          <leafValues>
            2.0799832046031952e-001 -7.4215285480022430e-002</leafValues></_>
        <_>
          <internalNodes>
            0 -1 517 -7.5558398384600878e-004</internalNodes>
          <leafValues>
            1.7560045421123505e-001 -8.2559227943420410e-002</leafValues></_>
        <_>
          <internalNodes>
            0 -1 466 3.4683698322623968e-004</internalNodes>
          <leafValues>
            -1.1932867020368576e-001 1.3059116899967194e-001</leafValues></_>
        <_>
          <internalNodes>
            0 -1 498 -6.0124876908957958e-003</internalNodes>
          <leafValues>
            -7.5803720951080322e-001 1.9112572073936462e-002</leafValues></_>
        <_>
          <internalNodes>
            0 -1 119 8.1163942813873291e-003</internalNodes>
          <leafValues>
            -4.4839803129434586e-002 3.5064199566841125e-001</leafValues></_>
        <_>
          <internalNodes>
            0 -1 184 -1.0013065300881863e-002</internalNodes>
          <leafValues>
            2.0306554436683655e-001 -7.1020901203155518e-002</leafValues></_></weakClassifiers></_>
    <!-- stage 7 -->
    <_>
      <maxWeakCount>96</maxWeakCount>
      <stageThreshold>-5.8733332157135010e-001</stageThreshold>
